digraph Tree {
node [shape=box] ;
0 [label="Sex_male <= 0.5\nentropy = 0.9607\nsamples = 891\nvalue = [549, 342]"] ;
1 [label="Pclass <= 2.5\nentropy = 0.8237\nsamples = 314\nvalue = [81, 233]"] ;
0 -> 1 [labeldistance=2.5, labelangle=45, headlabel="True"] ;
2 [label="Fare <= 28.8563\nentropy = 0.2988\nsamples = 170\nvalue = [9, 161]"] ;
1 -> 2 ;
3 [label="Fare <= 28.2313\nentropy = 0.469\nsamples = 70\nvalue = [7, 63]"] ;
2 -> 3 ;
4 [label="Age <= 23.5\nentropy = 0.4262\nsamples = 69\nvalue = [6, 63]"] ;
3 -> 4 ;
5 [label="entropy = 0.0\nsamples = 16\nvalue = [0, 16]"] ;
4 -> 5 ;
6 [label="entropy = 0.5095\nsamples = 53\nvalue = [6, 47]"] ;
4 -> 6 ;
7 [label="entropy = 0.0\nsamples = 1\nvalue = [1, 0]"] ;
3 -> 7 ;
8 [label="Parch <= 1.5\nentropy = 0.1414\nsamples = 100\nvalue = [2, 98]"] ;
2 -> 8 ;
9 [label="entropy = 0.0\nsamples = 84\nvalue = [0, 84]"] ;
8 -> 9 ;
10 [label="Age <= 2.5\nentropy = 0.5436\nsamples = 16\nvalue = [2, 14]"] ;
8 -> 10 ;
11 [label="entropy = 0.0\nsamples = 1\nvalue = [1, 0]"] ;
10 -> 11 ;
12 [label="entropy = 0.3534\nsamples = 15\nvalue = [1, 14]"] ;
10 -> 12 ;
13 [label="Fare <= 23.35\nentropy = 1.0\nsamples = 144\nvalue = [72, 72]"] ;
1 -> 13 ;
14 [label="Age <= 16.5\nentropy = 0.9766\nsamples = 117\nvalue = [48, 69]"] ;
13 -> 14 ;
15 [label="SibSp <= 2.5\nentropy = 0.8564\nsamples = 57\nvalue = [16, 41]"] ;
14 -> 15 ;
16 [label="entropy = 0.8184\nsamples = 55\nvalue = [14, 41]"] ;
15 -> 16 ;
17 [label="entropy = 0.0\nsamples = 2\nvalue = [2, 0]"] ;
15 -> 17 ;
18 [label="Age <= 36.5\nentropy = 0.9968\nsamples = 60\nvalue = [32, 28]"] ;
14 -> 18 ;
19 [label="entropy = 0.9997\nsamples = 53\nvalue = [26, 27]"] ;
18 -> 19 ;
20 [label="entropy = 0.5917\nsamples = 7\nvalue = [6, 1]"] ;
18 -> 20 ;
21 [label="PassengerId <= 322.0\nentropy = 0.5033\nsamples = 27\nvalue = [24, 3]"] ;
13 -> 21 ;
22 [label="Fare <= 32.8812\nentropy = 0.9183\nsamples = 9\nvalue = [6, 3]"] ;
21 -> 22 ;
23 [label="entropy = 1.0\nsamples = 6\nvalue = [3, 3]"] ;
22 -> 23 ;
24 [label="entropy = 0.0\nsamples = 3\nvalue = [3, 0]"] ;
22 -> 24 ;
25 [label="entropy = 0.0\nsamples = 18\nvalue = [18, 0]"] ;
21 -> 25 ;
26 [label="Fare <= 26.2687\nentropy = 0.6992\nsamples = 577\nvalue = [468, 109]"] ;
0 -> 26 [labeldistance=2.5, labelangle=-45, headlabel="False"] ;
27 [label="Parch <= 0.5\nentropy = 0.5578\nsamples = 415\nvalue = [361, 54]"] ;
26 -> 27 ;
28 [label="PassengerId <= 581.5\nentropy = 0.4773\nsamples = 380\nvalue = [341, 39]"] ;
27 -> 28 ;
29 [label="PassengerId <= 569.5\nentropy = 0.5726\nsamples = 236\nvalue = [204, 32]"] ;
28 -> 29 ;
30 [label="entropy = 0.5451\nsamples = 231\nvalue = [202, 29]"] ;
29 -> 30 ;
31 [label="entropy = 0.971\nsamples = 5\nvalue = [2, 3]"] ;
29 -> 31 ;
32 [label="Age <= 31.5\nentropy = 0.2805\nsamples = 144\nvalue = [137, 7]"] ;
28 -> 32 ;
33 [label="entropy = 0.374\nsamples = 97\nvalue = [90, 7]"] ;
32 -> 33 ;
34 [label="entropy = 0.0\nsamples = 47\nvalue = [47, 0]"] ;
32 -> 34 ;
35 [label="Age <= 12.0\nentropy = 0.9852\nsamples = 35\nvalue = [20, 15]"] ;
27 -> 35 ;
36 [label="Fare <= 20.825\nentropy = 0.6723\nsamples = 17\nvalue = [3, 14]"] ;
35 -> 36 ;
37 [label="entropy = 0.0\nsamples = 12\nvalue = [0, 12]"] ;
36 -> 37 ;
38 [label="entropy = 0.971\nsamples = 5\nvalue = [3, 2]"] ;
36 -> 38 ;
39 [label="Embarked_C <= 0.5\nentropy = 0.3095\nsamples = 18\nvalue = [17, 1]"] ;
35 -> 39 ;
40 [label="entropy = 0.0\nsamples = 15\nvalue = [15, 0]"] ;
39 -> 40 ;
41 [label="entropy = 0.9183\nsamples = 3\nvalue = [2, 1]"] ;
39 -> 41 ;
42 [label="SibSp <= 2.5\nentropy = 0.9243\nsamples = 162\nvalue = [107, 55]"] ;
26 -> 42 ;
43 [label="PassengerId <= 388.5\nentropy = 0.9638\nsamples = 139\nvalue = [85, 54]"] ;
42 -> 43 ;
44 [label="Age <= 45.25\nentropy = 0.7746\nsamples = 57\nvalue = [44, 13]"] ;
43 -> 44 ;
45 [label="entropy = 0.8673\nsamples = 45\nvalue = [32, 13]"] ;
44 -> 45 ;
46 [label="entropy = 0.0\nsamples = 12\nvalue = [12, 0]"] ;
44 -> 46 ;
47 [label="Age <= 53.5\nentropy = 1.0\nsamples = 82\nvalue = [41, 41]"] ;
43 -> 47 ;
48 [label="entropy = 0.9869\nsamples = 67\nvalue = [29, 38]"] ;
47 -> 48 ;
49 [label="entropy = 0.7219\nsamples = 15\nvalue = [12, 3]"] ;
47 -> 49 ;
50 [label="Age <= 3.5\nentropy = 0.258\nsamples = 23\nvalue = [22, 1]"] ;
42 -> 50 ;
51 [label="Age <= 2.5\nentropy = 0.5033\nsamples = 9\nvalue = [8, 1]"] ;
50 -> 51 ;
52 [label="entropy = 0.0\nsamples = 8\nvalue = [8, 0]"] ;
51 -> 52 ;
53 [label="entropy = 0.0\nsamples = 1\nvalue = [0, 1]"] ;
51 -> 53 ;
54 [label="entropy = 0.0\nsamples = 14\nvalue = [14, 0]"] ;
50 -> 54 ;
}